[list([])
 list([array([[[[ 0.08205338,  0.06899839, -0.25308722, ..., -0.0086248 ,
           0.13799678, -0.17895968],
         [ 0.16410676, -0.08947984, -0.19515692, ...,  0.07524328,
           0.07524328, -0.10641006],
         [ 0.13799678, -0.02660252,  0.0172496 , ...,  0.0043124 ,
           0.15048656, -0.23208198]],

        [[-0.0316359 ,  0.21282013,  0.05802049, ..., -0.08947984,
          -0.04473992, -0.03762164],
         [ 0.16410676,  0.08205338,  0.15048656, ..., -0.07524328,
          -0.06899839,  0.08205338],
         [ 0.21282013,  0.06899839,  0.30097312, ..., -0.21282013,
          -0.0316359 , -0.15048656]],

        [[-0.23208198, -0.15048656, -0.23208198, ...,  0.04102669,
           0.10641006,  0.10641006],
         [-0.25308722, -0.27599356, -0.06327181, ...,  0.0316359 ,
           0.07524328,  0.03449919],
         [-0.27599356, -0.30097312,  0.04473992, ...,  0.08947984,
          -0.13799678,  0.08205338]],

        [[-0.12654361,  0.39031383, -0.17895968, ..., -0.16410676,
          -0.11604099,  0.05320503],
         [-0.19515692,  0.27599356, -0.11604099, ..., -0.13799678,
           0.04473992,  0.11604099],
         [-0.06327181,  0.21282013,  0.15048656, ..., -0.25308722,
          -0.30097312,  0.16410676]],

        [[ 0.07524328,  0.16410676, -0.23208198, ..., -0.21282013,
           0.3282135 ,  0.19515692],
         [ 0.15048656, -0.13799678, -0.01881082, ..., -0.3282135 ,
           0.39031383,  0.19515692],
         [ 0.25308722, -0.08205338,  0.16410676, ..., -0.25308722,
           0.08947984,  0.35791937]]],


       [[[ 0.11604099,  0.04473992, -0.10641006, ...,  0.39031383,
          -0.25308722,  0.30097312],
         [ 0.05802049,  0.01219731,  0.15048656, ...,  0.46416396,
          -0.21282013,  0.30097312],
         [-0.00256417,  0.16410676,  0.23208198, ...,  0.42564026,
          -0.35791937,  0.21282013]],

        [[-0.04102669, -0.00512834,  0.09757846, ...,  0.11604099,
           0.15048656,  0.23208198],
         [-0.10641006, -0.19515692,  0.19515692, ...,  0.21282013,
          -0.0047027 ,  0.27599356],
         [-0.00152466, -0.11604099,  0.39031383, ...,  0.04473992,
          -0.05320503,  0.05802049]],

        [[-0.04473992,  0.23208198,  0.17895968, ..., -0.05802049,
           0.00609865,  0.08947984],
         [-0.19515692,  0.16410676,  0.42564026, ...,  0.        ,
          -0.01450512,  0.08205338],
         [-0.23208198,  0.05802049,  0.78062767, ...,  0.0172496 ,
          -0.23208198,  0.00790898]],

        [[ 0.03762164,  0.35791937,  0.13799678, ...,  0.10641006,
          -0.02901025, -0.23208198],
         [ 0.04878923,  0.35791937,  0.30097312, ...,  0.05320503,
           0.03449919, -0.19515692],
         [ 0.12654361,  0.3282135 ,  0.42564026, ...,  0.13799678,
          -0.17895968, -0.16410676]],

        [[-0.00139812,  0.05802049, -0.12654361, ...,  0.15048656,
           0.30097312, -0.15048656],
         [ 0.07524328, -0.08205338,  0.0086248 , ...,  0.23208198,
           0.25308722, -0.08205338],
         [ 0.00512834, -0.16410676,  0.17895968, ...,  0.27599356,
          -0.03449919,  0.09757846]]],


       [[[ 0.19515692,  0.05802049, -0.16410676, ..., -0.19515692,
           0.01581795,  0.09757846],
         [ 0.19515692,  0.02901025,  0.02236996, ..., -0.25308722,
           0.        ,  0.05802049],
         [ 0.07524328,  0.01330126, -0.17895968, ..., -0.27599356,
          -0.0316359 , -0.09757846]],

        [[ 0.17895968, -0.08205338,  0.06899839, ...,  0.03449919,
          -0.08205338, -0.01219731],
         [ 0.23208198, -0.15048656,  0.0172496 , ..., -0.08205338,
          -0.10641006, -0.03449919],
         [ 0.09757846,  0.01581795,  0.01118498, ...,  0.00725256,
          -0.21282013, -0.13799678]],

        [[ 0.04102669,  0.05802049,  0.06899839, ...,  0.07524328,
           0.15048656, -0.19515692],
         [ 0.12654361,  0.17895968,  0.11604099, ...,  0.09757846,
           0.02660252, -0.27599356],
         [ 0.05802049,  0.15048656, -0.08205338, ...,  0.08205338,
          -0.05802049, -0.3282135 ]],

        [[ 0.13799678,  0.09757846, -0.06327181, ...,  0.04102669,
          -0.07524328, -0.23208198],
         [ 0.06327181,  0.23208198, -0.15048656, ...,  0.02236996,
           0.07524328, -0.30097312],
         [-0.01881082,  0.25308722, -0.17895968, ...,  0.12654361,
           0.02901025, -0.17895968]],

        [[ 0.06899839,  0.01219731, -0.00362628, ..., -0.12654361,
          -0.25308722, -0.02051334],
         [-0.07524328,  0.08947984,  0.05802049, ..., -0.11604099,
          -0.11604099, -0.06327181],
         [ 0.00940541,  0.08947984,  0.12654361, ...,  0.01330126,
          -0.25308722,  0.15048656]]],


       [[[-0.04473992, -0.08205338, -0.21282013, ..., -0.15048656,
           0.16410676, -0.0086248 ],
         [-0.17895968, -0.16410676, -0.02236996, ..., -0.17895968,
           0.16410676,  0.13799678],
         [-0.25308722, -0.15048656, -0.25308722, ..., -0.27599356,
           0.27599356, -0.0047027 ]],

        [[-0.00304933, -0.17895968,  0.21282013, ...,  0.09757846,
          -0.12654361, -0.09757846],
         [-0.02051334, -0.15048656,  0.25308722, ..., -0.08947984,
           0.06327181,  0.03762164],
         [-0.21282013, -0.12654361,  0.21282013, ...,  0.0086248 ,
           0.13799678, -0.15048656]],

        [[ 0.30097312, -0.07524328,  0.00665063, ..., -0.08947984,
           0.11604099, -0.27599356],
         [ 0.27599356, -0.05802049,  0.        , ..., -0.21282013,
           0.19515692, -0.27599356],
         [ 0.27599356, -0.01219731,  0.11604099, ..., -0.12654361,
           0.23208198, -0.19515692]],

        [[-0.16410676, -0.02901025, -0.06327181, ..., -0.09757846,
           0.04102669, -0.05320503],
         [-0.02901025, -0.13799678,  0.08205338, ..., -0.01450512,
          -0.03449919, -0.08205338],
         [-0.27599356, -0.04878923, -0.08947984, ...,  0.05320503,
           0.06899839,  0.11604099]],

        [[-0.27599356, -0.05802049, -0.23208198, ...,  0.01025667,
           0.09757846, -0.02439461],
         [-0.3282135 ,  0.08947984, -0.09757846, ..., -0.19515692,
           0.10641006,  0.04102669],
         [-0.35791937,  0.05802049, -0.19515692, ..., -0.08947984,
          -0.00790898,  0.25308722]]],


       [[[-0.16410676, -0.08947984, -0.19515692, ...,  0.05802049,
          -0.19515692,  0.13799678],
         [-0.17895968,  0.06899839, -0.02901025, ...,  0.13799678,
          -0.13799678,  0.05802049],
         [-0.23208198,  0.01219731, -0.03762164, ...,  0.23208198,
           0.00332531,  0.12654361]],

        [[ 0.11604099, -0.06899839, -0.10641006, ...,  0.00725256,
           0.13799678, -0.13799678],
         [ 0.02901025, -0.23208198,  0.06327181, ..., -0.05802049,
           0.17895968, -0.05802049],
         [ 0.04878923, -0.17895968,  0.11604099, ...,  0.03449919,
           0.19515692,  0.0172496 ]],

        [[ 0.17895968, -0.23208198,  0.05320503, ..., -0.16410676,
           0.06327181, -0.10641006],
         [ 0.30097312, -0.15048656,  0.08205338, ..., -0.19515692,
          -0.01581795, -0.03762164],
         [ 0.25308722, -0.21282013,  0.11604099, ..., -0.04473992,
           0.06899839,  0.21282013]],

        [[-0.0316359 ,  0.06327181, -0.16410676, ...,  0.21282013,
          -0.25308722, -0.05802049],
         [-0.06327181, -0.04473992, -0.01450512, ...,  0.30097312,
          -0.25308722,  0.05320503],
         [-0.16410676,  0.15048656, -0.12654361, ...,  0.3282135 ,
          -0.16410676,  0.25308722]],

        [[ 0.02439461,  0.01330126,  0.01881082, ...,  0.09757846,
          -0.0316359 ,  0.01330126],
         [ 0.05802049, -0.04102669,  0.19515692, ..., -0.01025667,
           0.11604099, -0.05320503],
         [ 0.12654361,  0.19515692,  0.15048656, ...,  0.16410676,
           0.15048656,  0.21282013]]]], dtype=float32), array([ 0.00230967, -0.00274668, -0.00115483, -0.00653273, -0.00125936,
        0.00299527,  0.00211798,  0.0009711 ,  0.0008905 ,  0.00057742,
       -0.00149764, -0.00149764,  0.003562  , -0.00299527, -0.00149764,
        0.0008905 ,  0.00048555, -0.0004083 ,  0.00194219, -0.00653273,
        0.00022262, -0.00052949, -0.00163318, -0.00423595], dtype=float32)])
 list([array([0.97771174, 0.75391877, 0.8221543 , 1.2679352 , 1.3826932 ,
       0.97771174, 0.89656556, 0.89656556, 0.6339676 , 1.1627017 ,
       1.0662022 , 0.97771174, 1.3826932 , 1.3826932 , 1.1627017 ,
       0.6913466 , 1.0662022 , 0.75391877, 0.97771174, 1.2679352 ,
       0.58135086, 1.0662022 , 0.89656556, 1.5078375 ], dtype=float32), array([-0.1454844 , -0.06116866,  0.04325277,  0.1730111 ,  0.09433497,
       -0.05143651,  0.02162639, -0.0727422 , -0.24467464, -0.12233732,
       -0.02804595, -0.15865187, -0.04716748,  0.1334098 , -0.00991574,
       -0.10287301, -0.05609191, -0.03335245, -0.04716748,  0.22436763,
       -0.1454844 , -0.08650555, -0.22436763,  0.08650555], dtype=float32)])
 list([])
 list([array([[[[ 0.00467729,  0.11541393,  0.04852558, ..., -0.11541393,
          -0.02885348, -0.02040249],
         [ 0.02040249, -0.06292989,  0.04852558, ..., -0.03431277,
           0.19410232, -0.05770696],
         [-0.12585978,  0.11541393,  0.03431277, ..., -0.07483667,
          -0.12585978, -0.14967334],
         ...,
         [ 0.03741834,  0.25171956,  0.11541393, ..., -0.03431277,
          -0.05291752,  0.25171956],
         [ 0.23082785, -0.11541393, -0.06292989, ..., -0.09705116,
          -0.19410232, -0.06862553],
         [ 0.04449815,  0.05291752,  0.03741834, ..., -0.11541393,
           0.16321994, -0.19410232]],

        [[ 0.14967334, -0.16321994,  0.01020125, ..., -0.23082785,
           0.13725106, -0.06862553],
         [-0.0889963 , -0.02040249, -0.01322938, ..., -0.16321994,
          -0.04449815,  0.08160997],
         [ 0.03431277,  0.14967334,  0.11541393, ...,  0.00214455,
           0.00090167, -0.0889963 ],
         ...,
         [-0.19410232,  0.00467729,  0.06862553, ...,  0.27450213,
           0.03431277,  0.0889963 ],
         [-0.00721337, -0.01322938, -0.16321994, ..., -0.05770696,
          -0.03431277, -0.04080499],
         [ 0.11541393,  0.13725106, -0.01715638, ..., -0.05291752,
           0.08160997,  0.05770696]],

        [[-0.06292989, -0.14967334, -0.01870917, ...,  0.19410232,
          -0.10583504,  0.0889963 ],
         [-0.0060657 , -0.09705116, -0.05770696, ..., -0.12585978,
           0.00935458, -0.11541393],
         [-0.13725106,  0.06292989, -0.10583504, ..., -0.03431277,
           0.13725106, -0.13725106],
         ...,
         [ 0.10583504,  0.1779926 , -0.04080499, ..., -0.14967334,
          -0.03146495,  0.25171956],
         [-0.16321994, -0.10583504, -0.0889963 , ...,  0.23082785,
          -0.01442674, -0.03146495],
         [-0.09705116,  0.16321994, -0.06292989, ..., -0.02224907,
           0.02040249,  0.10583504]],

        [[ 0.21167007,  0.04080499,  0.02645876, ..., -0.08160997,
          -0.01573247, -0.0889963 ],
         [-0.06862553, -0.12585978,  0.05770696, ..., -0.02885348,
           0.04449815,  0.02224907],
         [-0.08160997,  0.04080499, -0.1779926 , ...,  0.01573247,
           0.1779926 , -0.21167007],
         ...,
         [-0.25171956, -0.00786624,  0.09705116, ..., -0.03431277,
           0.05770696, -0.07483667],
         [ 0.10583504, -0.21167007, -0.11541393, ..., -0.02426279,
           0.08160997,  0.02885348],
         [-0.03146495, -0.00255031, -0.13725106, ...,  0.0042891 ,
          -0.01322938, -0.10583504]],

        [[-0.21167007,  0.04852558, -0.04080499, ..., -0.01715638,
          -0.01112454, -0.23082785],
         [ 0.10583504, -0.13725106, -0.05770696, ..., -0.01573247,
           0.02224907,  0.02224907],
         [-0.1779926 ,  0.16321994, -0.09705116, ..., -0.16321994,
           0.16321994, -0.05770696],
         ...,
         [-0.07483667, -0.13725106, -0.1779926 , ..., -0.27450213,
          -0.2993467 , -0.04449815],
         [-0.09705116, -0.12585978, -0.02645876, ...,  0.04449815,
          -0.07483667, -0.19410232],
         [ 0.0889963 ,  0.00786624,  0.09705116, ...,  0.06862553,
           0.00510062,  0.01322938]]],


       [[[-0.16321994,  0.01442674, -0.05770696, ..., -0.04449815,
           0.13725106,  0.11541393],
         [-0.02645876,  0.0889963 ,  0.09705116, ...,  0.02885348,
          -0.04449815, -0.08160997],
         [ 0.13725106,  0.10583504,  0.04852558, ...,  0.14967334,
          -0.19410232, -0.27450213],
         ...,
         [ 0.01715638,  0.03431277,  0.06862553, ...,  0.07483667,
           0.1779926 , -0.13725106],
         [ 0.09705116, -0.01870917, -0.02885348, ..., -0.05770696,
          -0.16321994,  0.19410232],
         [ 0.05770696, -0.13725106,  0.12585978, ..., -0.03431277,
           0.0889963 , -0.01020125]],

        [[-0.1779926 ,  0.05291752,  0.09705116, ...,  0.09705116,
          -0.02040249,  0.00510062],
         [-0.04852558,  0.16321994, -0.03431277, ...,  0.13725106,
           0.09705116, -0.16321994],
         [ 0.21167007,  0.03431277,  0.21167007, ...,  0.12585978,
          -0.13725106, -0.00661469],
         ...,
         [ 0.21167007,  0.12585978, -0.05770696, ...,  0.14967334,
           0.03146495, -0.21167007],
         [-0.03741834,  0.03741834,  0.        , ..., -0.13725106,
          -0.2993467 ,  0.10583504],
         [-0.01020125,  0.06292989, -0.01715638, ..., -0.23082785,
           0.09705116, -0.05770696]],

        [[ 0.19410232, -0.00360669, -0.11541393, ...,  0.05291752,
           0.38820463,  0.09705116],
         [ 0.01322938,  0.0889963 , -0.12585978, ...,  0.14967334,
           0.13725106, -0.01715638],
         [ 0.11541393, -0.0060657 , -0.12585978, ...,  0.27450213,
           0.0889963 , -0.09705116],
         ...,
         [ 0.19410232,  0.14967334, -0.23082785, ...,  0.16321994,
           0.13725106,  0.16321994],
         [-0.05770696,  0.10583504,  0.09705116, ...,  0.10583504,
           0.01112454, -0.08160997],
         [ 0.03431277,  0.03146495,  0.12585978, ...,  0.11541393,
           0.01715638,  0.12585978]],

        [[-0.07483667, -0.09705116,  0.02885348, ...,  0.00255031,
          -0.00556227,  0.09705116],
         [-0.25171956,  0.06292989, -0.1779926 , ...,  0.13725106,
           0.14967334,  0.00556227],
         [-0.12585978,  0.02885348, -0.05770696, ...,  0.13725106,
          -0.01715638,  0.11541393],
         ...,
         [-0.25171956,  0.06862553, -0.08160997, ..., -0.09705116,
           0.02645876, -0.02224907],
         [-0.01213139, -0.07483667,  0.25171956, ..., -0.10583504,
          -0.09705116, -0.08160997],
         [ 0.10583504,  0.02040249,  0.02040249, ..., -0.09705116,
           0.13725106,  0.1779926 ]],

        [[ 0.14967334,  0.01870917, -0.23082785, ...,  0.03146495,
          -0.04852558,  0.06292989],
         [-0.10583504, -0.3559852 ,  0.0889963 , ...,  0.25171956,
          -0.13725106, -0.16321994],
         [-0.0889963 , -0.13725106,  0.02885348, ...,  0.09705116,
          -0.0042891 ,  0.04449815],
         ...,
         [ 0.06862553, -0.10583504, -0.13725106, ..., -0.00510062,
           0.05770696,  0.00857819],
         [ 0.16321994,  0.00467729,  0.16321994, ...,  0.13725106,
           0.10583504, -0.03741834],
         [ 0.00935458, -0.10583504, -0.0889963 , ...,  0.2993467 ,
           0.09705116, -0.16321994]]],


       [[[ 0.04080499, -0.19410232, -0.01870917, ...,  0.11541393,
          -0.10583504,  0.07483667],
         [ 0.06862553,  0.06292989, -0.21167007, ..., -0.1779926 ,
           0.16321994,  0.3264399 ],
         [ 0.        , -0.12585978, -0.01213139, ..., -0.07483667,
          -0.12585978,  0.02426279],
         ...,
         [ 0.00935458, -0.1779926 ,  0.1779926 , ..., -0.02885348,
          -0.14967334,  0.10583504],
         [-0.00196656,  0.00661469, -0.03741834, ..., -0.12585978,
           0.05770696, -0.00857819],
         [ 0.04080499,  0.1779926 ,  0.11541393, ...,  0.04852558,
          -0.07483667,  0.05291752]],

        [[-0.01213139, -0.05770696, -0.04449815, ..., -0.19410232,
           0.27450213,  0.01442674],
         [-0.01870917,  0.01442674,  0.13725106, ...,  0.02645876,
          -0.01020125, -0.00510062],
         [-0.06292989, -0.13725106, -0.08160997, ..., -0.12585978,
          -0.11541393,  0.02645876],
         ...,
         [ 0.05291752, -0.01442674,  0.02040249, ..., -0.02426279,
          -0.05770696,  0.19410232],
         [ 0.09705116,  0.25171956,  0.05291752, ..., -0.02224907,
           0.16321994, -0.00935458],
         [-0.02885348, -0.09705116, -0.01573247, ...,  0.04080499,
          -0.14967334,  0.05770696]],

        [[ 0.01442674,  0.09705116,  0.05770696, ..., -0.00857819,
          -0.16321994, -0.0889963 ],
         [ 0.1779926 ,  0.05770696, -0.06292989, ...,  0.14967334,
           0.16321994,  0.0889963 ],
         [ 0.05770696,  0.09705116, -0.06862553, ...,  0.12585978,
          -0.19410232,  0.00857819],
         ...,
         [-0.11541393, -0.0889963 ,  0.14967334, ..., -0.1779926 ,
          -0.02426279, -0.04080499],
         [-0.01112454,  0.25171956,  0.16321994, ..., -0.0889963 ,
           0.0889963 , -0.00510062],
         [-0.08160997, -0.14967334,  0.06292989, ...,  0.06862553,
          -0.00857819, -0.07483667]],

        [[ 0.27450213,  0.04449815, -0.11541393, ...,  0.01112454,
           0.00233865,  0.10583504],
         [-0.00857819,  0.01213139,  0.07483667, ...,  0.05770696,
           0.0042891 , -0.01213139],
         [-0.08160997,  0.0889963 , -0.03741834, ..., -0.00857819,
          -0.09705116, -0.05770696],
         ...,
         [ 0.1779926 ,  0.14967334,  0.06862553, ...,  0.06862553,
          -0.00278113,  0.12585978],
         [-0.03431277,  0.01213139, -0.01213139, ..., -0.27450213,
           0.14967334, -0.00330734],
         [ 0.02426279, -0.13725106,  0.09705116, ...,  0.2993467 ,
          -0.05770696, -0.11541393]],

        [[-0.03741834,  0.00467729,  0.10583504, ...,  0.19410232,
          -0.00721337,  0.04080499],
         [ 0.14967334,  0.03741834, -0.01870917, ...,  0.04852558,
           0.        ,  0.16321994],
         [-0.08160997,  0.02885348,  0.16321994, ..., -0.12585978,
           0.0889963 , -0.00661469],
         ...,
         [-0.19410232,  0.19410232,  0.1779926 , ...,  0.0889963 ,
           0.27450213, -0.06292989],
         [ 0.01112454, -0.13725106, -0.02885348, ...,  0.09705116,
          -0.00857819,  0.05291752],
         [-0.12585978, -0.04852558,  0.06862553, ..., -0.04852558,
           0.02040249, -0.04449815]]],


       [[[-0.04449815, -0.04080499,  0.07483667, ..., -0.13725106,
          -0.05770696, -0.05291752],
         [ 0.25171956, -0.06292989,  0.02885348, ..., -0.01442674,
           0.04852558, -0.03146495],
         [ 0.02426279,  0.1779926 , -0.06292989, ...,  0.19410232,
          -0.06292989, -0.02426279],
         ...,
         [ 0.0889963 , -0.13725106, -0.02040249, ...,  0.05770696,
          -0.04080499,  0.05770696],
         [-0.19410232, -0.02224907, -0.19410232, ..., -0.08160997,
           0.07483667,  0.06862553],
         [ 0.11541393,  0.09705116,  0.16321994, ..., -0.06292989,
           0.02040249,  0.01573247]],

        [[-0.14967334, -0.05291752,  0.00467729, ..., -0.02885348,
          -0.0889963 , -0.19410232],
         [-0.02224907,  0.14967334,  0.0889963 , ..., -0.1779926 ,
           0.03741834, -0.04080499],
         [ 0.00467729,  0.2993467 , -0.08160997, ...,  0.12585978,
           0.05291752, -0.08160997],
         ...,
         [ 0.1779926 ,  0.01870917, -0.03431277, ...,  0.1779926 ,
          -0.16321994,  0.04852558],
         [ 0.12585978, -0.14967334, -0.10583504, ...,  0.11541393,
           0.09705116,  0.02224907],
         [-0.06862553,  0.07483667,  0.13725106, ...,  0.01442674,
           0.06292989,  0.03741834]],

        [[-0.14967334,  0.19410232, -0.05291752, ...,  0.04080499,
           0.05291752, -0.05291752],
         [ 0.03741834,  0.16321994, -0.03741834, ..., -0.13725106,
          -0.07483667,  0.02224907],
         [-0.09705116,  0.3264399 ,  0.01020125, ...,  0.09705116,
           0.02224907, -0.09705116],
         ...,
         [-0.0889963 ,  0.02645876,  0.16321994, ...,  0.25171956,
           0.10583504,  0.04449815],
         [ 0.08160997, -0.04852558, -0.25171956, ..., -0.02885348,
          -0.05770696, -0.13725106],
         [-0.05770696, -0.21167007, -0.12585978, ..., -0.02426279,
          -0.1779926 , -0.05770696]],

        [[ 0.11541393, -0.01213139, -0.03431277, ...,  0.01573247,
          -0.14967334, -0.11541393],
         [ 0.19410232,  0.14967334,  0.19410232, ..., -0.10583504,
           0.02040249, -0.02224907],
         [-0.07483667,  0.07483667,  0.02040249, ..., -0.11541393,
          -0.03741834,  0.09705116],
         ...,
         [-0.09705116, -0.04449815, -0.00935458, ..., -0.06862553,
          -0.00467729,  0.04449815],
         [-0.10583504, -0.23082785,  0.00303285, ...,  0.21167007,
           0.0060657 ,  0.0060657 ],
         [-0.19410232,  0.12585978, -0.1779926 , ..., -0.16321994,
           0.02426279, -0.06292989]],

        [[ 0.21167007,  0.12585978,  0.12585978, ...,  0.10583504,
           0.11541393,  0.06862553],
         [-0.00935458, -0.16321994,  0.12585978, ...,  0.19410232,
          -0.09705116,  0.11541393],
         [-0.1779926 ,  0.0042891 , -0.00786624, ...,  0.09705116,
          -0.06862553,  0.06862553],
         ...,
         [-0.16321994, -0.21167007, -0.06292989, ..., -0.03431277,
          -0.16321994,  0.03741834],
         [ 0.02426279,  0.05770696, -0.09705116, ...,  0.14967334,
           0.00786624,  0.10583504],
         [-0.09705116,  0.13725106, -0.16321994, ..., -0.05770696,
           0.04449815,  0.23082785]]],


       [[[-0.01715638, -0.14967334,  0.08160997, ..., -0.02426279,
           0.11541393,  0.10583504],
         [-0.3559852 , -0.21167007, -0.1779926 , ..., -0.13725106,
           0.16321994,  0.1779926 ],
         [-0.19410232,  0.02040249,  0.00278113, ...,  0.16321994,
           0.10583504,  0.16321994],
         ...,
         [ 0.08160997,  0.06292989, -0.13725106, ..., -0.0060657 ,
          -0.06862553, -0.14967334],
         [ 0.09705116,  0.01322938, -0.0889963 , ..., -0.13725106,
          -0.16321994, -0.0889963 ],
         [-0.05770696, -0.00935458,  0.00721337, ..., -0.07483667,
           0.04080499,  0.11541393]],

        [[-0.00165367,  0.00721337, -0.09705116, ...,  0.10583504,
          -0.10583504, -0.04449815],
         [-0.10583504,  0.02224907, -0.06862553, ..., -0.06862553,
           0.06292989, -0.04080499],
         [-0.0042891 ,  0.05770696, -0.12585978, ..., -0.06862553,
           0.23082785,  0.0889963 ],
         ...,
         [-0.13725106, -0.1779926 ,  0.04852558, ..., -0.04852558,
           0.1779926 , -0.00107227],
         [-0.0889963 ,  0.01213139, -0.11541393, ..., -0.00857819,
          -0.10583504, -0.14967334],
         [-0.07483667,  0.08160997, -0.03431277, ...,  0.03741834,
          -0.0889963 , -0.0889963 ]],

        [[-0.10583504,  0.04080499,  0.01715638, ...,  0.02426279,
          -0.06292989, -0.02645876],
         [-0.0889963 , -0.16321994, -0.0889963 , ...,  0.05770696,
          -0.11541393,  0.12585978],
         [ 0.06292989,  0.08160997, -0.01573247, ...,  0.00857819,
           0.12585978, -0.02426279],
         ...,
         [-0.08160997,  0.19410232, -0.0889963 , ..., -0.09705116,
          -0.14967334, -0.03146495],
         [ 0.13725106,  0.11541393, -0.07483667, ..., -0.07483667,
           0.21167007, -0.03741834],
         [ 0.09705116,  0.03741834, -0.21167007, ..., -0.12585978,
           0.21167007,  0.06292989]],

        [[-0.05770696, -0.06862553,  0.02426279, ...,  0.12585978,
           0.03741834,  0.06292989],
         [ 0.14967334, -0.09705116,  0.09705116, ...,  0.14967334,
          -0.01213139,  0.0889963 ],
         [ 0.13725106,  0.1779926 , -0.12585978, ...,  0.05770696,
           0.03431277,  0.04852558],
         ...,
         [ 0.08160997, -0.08160997,  0.04852558, ..., -0.02645876,
          -0.06862553,  0.06862553],
         [-0.13725106,  0.13725106, -0.01322938, ...,  0.07483667,
          -0.02040249, -0.06862553],
         [-0.0042891 ,  0.13725106, -0.00165367, ..., -0.10583504,
          -0.06862553,  0.25171956]],

        [[ 0.11541393,  0.08160997, -0.02040249, ...,  0.00857819,
          -0.07483667,  0.10583504],
         [ 0.08160997,  0.12585978, -0.01322938, ...,  0.03146495,
          -0.16321994, -0.06862553],
         [ 0.09705116,  0.19410232, -0.08160997, ...,  0.04080499,
          -0.00255031,  0.04852558],
         ...,
         [ 0.19410232,  0.08160997,  0.13725106, ...,  0.10583504,
           0.04080499,  0.07483667],
         [-0.19410232,  0.02224907,  0.19410232, ...,  0.03146495,
          -0.14967334,  0.0889963 ],
         [ 0.02426279,  0.0889963 ,  0.19410232, ...,  0.25171956,
          -0.00857819, -0.16321994]]]], dtype=float32), array([-3.75718009e-05,  2.52751954e-04, -1.78722621e-04, -3.27778747e-04,
        6.55557495e-04,  3.57445242e-04, -1.52264374e-06, -1.32836385e-05,
       -4.87245998e-05, -5.51255944e-04,  4.09723434e-05, -5.31345540e-05,
        4.46806553e-05, -7.24295523e-06, -2.12538216e-04,  1.63889374e-04,
        1.63889374e-04, -7.51436019e-05, -8.50152865e-04, -2.31774568e-04,
        1.37813986e-04,  4.09723434e-05,  2.75627972e-04, -9.74491995e-05,
        8.19446868e-05,  2.31774568e-04,  8.19446868e-05, -6.89069930e-05,
        4.46806553e-05,  9.74491995e-05, -1.01100781e-03, -1.37813986e-04,
       -3.57445242e-04,  4.25076432e-04, -1.78722621e-04, -1.63889374e-04],
      dtype=float32)])
 list([array([1.0180236 , 0.78500354, 1.0180236 , 0.8560524 , 0.93353176,
       1.1101626 , 0.93353176, 1.1101626 , 0.8560524 , 1.1101626 ,
       0.7198514 , 1.1101626 , 0.8560524 , 0.78500354, 0.93353176,
       1.0180236 , 1.2106409 , 0.78500354, 1.0180236 , 0.93353176,
       1.1101626 , 0.93353176, 1.1101626 , 1.0180236 , 0.8560524 ,
       1.2106409 , 1.2106409 , 1.1101626 , 0.8560524 , 1.2106409 ,
       1.2106409 , 1.1101626 , 1.1101626 , 1.1101626 , 0.78500354,
       1.0180236 ], dtype=float32), array([-0.10785016, -0.2797287 , -0.13986436, -0.39559615, -0.2797287 ,
        0.00519774, -0.30504632, -0.18138163, -0.18138163, -0.09889904,
       -0.30504632, -0.36276326, -0.2797287 , -0.2797287 , -0.25651237,
       -0.18138163,  0.09069081, -0.25651237,  0.0095327 , -0.09069081,
       -0.10785016, -0.36276326, -0.30504632, -0.18138163, -0.23522286,
       -0.04158193, -0.19779807, -0.09889904, -0.18138163, -0.09069081,
       -0.09889904,  0.01906539, -0.1663277 , -0.21570033, -0.3326554 ,
       -0.06412809], dtype=float32)])
 list([])
 list([array([[[[-0.02266292,  0.15245737,  0.010391  , ..., -0.02939018,
           0.02078199, -0.16625595],
         [ 0.21560729, -0.21560729, -0.10780364, ...,  0.05878035,
          -0.12820086, -0.16625595],
         [-0.1813034 ,  0.0906517 , -0.09885637, ..., -0.12820086,
          -0.04156399, -0.03495101],
         ...,
         [ 0.09885637,  0.09885637, -0.0906517 , ...,  0.00952859,
          -0.01133146, -0.07622869],
         [ 0.06990202, -0.09885637,  0.27960807, ...,  0.09885637,
           0.03205021,  0.00566573],
         [ 0.01905717,  0.01235705,  0.06410043, ...,  0.12820086,
          -0.05390182, -0.01905717]],

        [[ 0.06990202,  0.19771275, -0.11756071, ...,  0.01905717,
          -0.00673773,  0.02695091],
         [ 0.1813034 ,  0.23512141,  0.08312798, ..., -0.21560729,
          -0.07622869,  0.02939018],
         [ 0.10780364, -0.16625595, -0.05878035, ..., -0.06410043,
           0.0174755 ,  0.01905717],
         ...,
         [-0.16625595, -0.04156399, -0.0906517 , ...,  0.15245737,
           0.00238215,  0.04942819],
         [ 0.05878035,  0.0906517 ,  0.0906517 , ..., -0.11756071,
          -0.12820086,  0.02939018],
         [ 0.06990202, -0.02939018, -0.19771275, ...,  0.0906517 ,
           0.27960807,  0.1813034 ]],

        [[ 0.13980404,  0.11756071,  0.07622869, ..., -0.00367377,
          -0.09885637,  0.01133146],
         [ 0.25640172,  0.23512141, -0.10780364, ..., -0.27960807,
           0.02471409,  0.05390182],
         [ 0.06410043, -0.09885637,  0.04532585, ...,  0.04942819,
          -0.02939018, -0.02471409],
         ...,
         [-0.15245737, -0.16625595, -0.15245737, ...,  0.01133146,
          -0.04942819, -0.09885637],
         [ 0.07622869,  0.06410043, -0.11756071, ...,  0.09885637,
           0.02471409, -0.00119107],
         [ 0.16625595, -0.11756071, -0.21560729, ...,  0.10780364,
           0.15245737,  0.15245737]],

        [[-0.21560729,  0.06990202, -0.09885637, ..., -0.08312798,
          -0.08312798,  0.01905717],
         [ 0.13980404, -0.08312798, -0.04532585, ..., -0.01905717,
           0.02471409,  0.02471409],
         [ 0.01905717,  0.23512141, -0.13980404, ...,  0.0906517 ,
           0.10780364, -0.03205021],
         ...,
         [-0.25640172, -0.09885637, -0.06410043, ...,  0.04156399,
          -0.0906517 ,  0.11756071],
         [ 0.15245737, -0.03811434, -0.07622869, ..., -0.00238215,
          -0.00801255, -0.0174755 ],
         [ 0.08312798, -0.06990202,  0.15245737, ..., -0.06990202,
          -0.11756071,  0.02078199]],

        [[ 0.12820086, -0.12820086, -0.02939018, ..., -0.06410043,
           0.13980404,  0.04942819],
         [ 0.16625595, -0.15245737, -0.09885637, ...,  0.04942819,
          -0.10780364, -0.05878035],
         [ 0.19771275,  0.10780364,  0.07622869, ..., -0.16625595,
           0.04156399, -0.010391  ],
         ...,
         [-0.1813034 ,  0.09885637,  0.07622869, ..., -0.06990202,
           0.13980404, -0.19771275],
         [ 0.05390182, -0.27960807, -0.10780364, ...,  0.19771275,
          -0.06990202,  0.04532585],
         [ 0.04532585, -0.0906517 , -0.06410043, ..., -0.12820086,
           0.08312798, -0.12820086]]],


       [[[-0.13980404,  0.03495101, -0.07622869, ..., -0.05878035,
          -0.05878035, -0.03495101],
         [-0.1813034 , -0.25640172, -0.00436888, ..., -0.07622869,
          -0.010391  , -0.02695091],
         [ 0.10780364, -0.1813034 , -0.13980404, ..., -0.04532585,
           0.01235705,  0.1813034 ],
         ...,
         [ 0.15245737,  0.05390182,  0.04156399, ...,  0.05390182,
           0.04942819,  0.13980404],
         [-0.13980404,  0.07622869, -0.12820086, ..., -0.02471409,
          -0.02471409,  0.04942819],
         [ 0.09885637, -0.05878035,  0.12820086, ...,  0.00308926,
           0.00400628,  0.10780364]],

        [[-0.27960807, -0.1813034 ,  0.16625595, ...,  0.11756071,
           0.10780364, -0.10780364],
         [-0.02078199, -0.11756071,  0.05390182, ..., -0.00617852,
          -0.16625595, -0.09885637],
         [ 0.09885637, -0.15245737, -0.07622869, ...,  0.04532585,
           0.06410043,  0.02939018],
         ...,
         [-0.19771275,  0.05878035,  0.19771275, ..., -0.05390182,
          -0.15245737,  0.04942819],
         [-0.1813034 ,  0.16625595,  0.16625595, ..., -0.10780364,
          -0.30491474,  0.12820086],
         [ 0.23512141,  0.12820086, -0.04532585, ...,  0.02695091,
          -0.16625595, -0.11756071]],

        [[-0.10780364, -0.25640172,  0.03495101, ..., -0.09885637,
           0.0906517 , -0.06990202],
         [-0.0174755 ,  0.01469509, -0.06410043, ..., -0.00238215,
           0.01133146, -0.02266292],
         [-0.03495101,  0.05878035, -0.01469509, ...,  0.02939018,
           0.06410043, -0.05878035],
         ...,
         [ 0.04532585,  0.03495101,  0.08312798, ...,  0.04942819,
          -0.11756071, -0.1813034 ],
         [-0.13980404,  0.11756071,  0.08312798, ..., -0.03811434,
          -0.0906517 ,  0.01133146],
         [ 0.03205021, -0.13980404,  0.16625595, ...,  0.10780364,
           0.15245737,  0.23512141]],

        [[ 0.19771275, -0.11756071,  0.12820086, ...,  0.010391  ,
           0.01133146, -0.11756071],
         [-0.0906517 , -0.1813034 ,  0.00259775, ..., -0.06990202,
           0.01347546,  0.05390182],
         [ 0.05390182,  0.02471409,  0.08312798, ..., -0.08312798,
           0.01602511, -0.05878035],
         ...,
         [-0.12820086,  0.06990202,  0.07622869, ...,  0.08312798,
           0.11756071, -0.09885637],
         [-0.19771275, -0.12820086,  0.09885637, ...,  0.02266292,
          -0.1813034 , -0.04156399],
         [-0.02266292, -0.0906517 , -0.06990202, ...,  0.09885637,
           0.09885637,  0.11756071]],

        [[-0.13980404, -0.04942819, -0.11756071, ...,  0.15245737,
           0.00952859, -0.01133146],
         [-0.0174755 , -0.15245737, -0.15245737, ..., -0.12820086,
           0.08312798,  0.13980404],
         [ 0.12820086,  0.15245737, -0.05390182, ...,  0.12820086,
          -0.0906517 ,  0.00873775],
         ...,
         [-0.11756071, -0.04942819, -0.05390182, ..., -0.05878035,
          -0.12820086,  0.04532585],
         [-0.1813034 , -0.01602511, -0.12820086, ...,  0.13980404,
          -0.0174755 ,  0.11756071],
         [-0.03811434,  0.05390182, -0.04532585, ..., -0.12820086,
          -0.03811434,  0.02695091]]],


       [[[-0.23512141,  0.04942819, -0.06410043, ...,  0.05390182,
          -0.0906517 ,  0.07622869],
         [-0.01602511,  0.09885637, -0.06410043, ...,  0.15245737,
           0.08312798, -0.09885637],
         [-0.010391  ,  0.16625595, -0.11756071, ..., -0.09885637,
          -0.06990202, -0.23512141],
         ...,
         [ 0.27960807, -0.08312798, -0.11756071, ...,  0.09885637,
           0.00259775, -0.02471409],
         [ 0.0906517 , -0.09885637, -0.25640172, ..., -0.09885637,
           0.13980404, -0.04942819],
         [ 0.00873775, -0.02078199, -0.00183689, ..., -0.0051955 ,
          -0.03205021,  0.010391  ]],

        [[ 0.13980404,  0.10780364,  0.00566573, ...,  0.11756071,
          -0.13980404, -0.02078199],
         [ 0.19771275,  0.15245737, -0.04942819, ...,  0.02471409,
          -0.05878035,  0.07622869],
         [-0.1813034 ,  0.02939018,  0.0906517 , ...,  0.16625595,
          -0.0051955 , -0.03205021],
         ...,
         [ 0.15245737,  0.06990202, -0.10780364, ..., -0.08312798,
           0.15245737, -0.15245737],
         [ 0.06990202,  0.25640172, -0.13980404, ..., -0.07622869,
           0.12820086,  0.02266292],
         [ 0.0174755 ,  0.04942819,  0.010391  , ...,  0.01905717,
          -0.12820086, -0.04942819]],

        [[-0.00801255, -0.00617852,  0.15245737, ..., -0.15245737,
          -0.01235705,  0.15245737],
         [ 0.06410043, -0.21560729,  0.01602511, ..., -0.08312798,
          -0.1813034 ,  0.04942819],
         [ 0.13980404, -0.09885637, -0.11756071, ...,  0.15245737,
           0.06410043,  0.07622869],
         ...,
         [ 0.1813034 , -0.00100157, -0.01905717, ..., -0.01235705,
           0.06410043, -0.00617852],
         [ 0.05390182,  0.09885637,  0.12820086, ..., -0.04942819,
          -0.04942819,  0.15245737],
         [-0.13980404, -0.06410043, -0.05878035, ...,  0.06410043,
          -0.15245737, -0.13980404]],

        [[-0.05390182, -0.23512141, -0.01235705, ..., -0.11756071,
           0.        , -0.01602511],
         [ 0.06410043,  0.04942819, -0.00617852, ..., -0.10780364,
           0.16625595,  0.06990202],
         [ 0.03495101,  0.11756071,  0.01347546, ...,  0.13980404,
           0.03811434, -0.0174755 ],
         ...,
         [-0.00400628,  0.12820086,  0.19771275, ..., -0.00400628,
          -0.15245737, -0.19771275],
         [ 0.0174755 , -0.0906517 , -0.08312798, ...,  0.00873775,
           0.16625595, -0.11756071],
         [ 0.00566573,  0.16625595, -0.06990202, ..., -0.21560729,
           0.02078199, -0.05878035]],

        [[-0.06990202, -0.07622869, -0.25640172, ...,  0.08312798,
          -0.03205021, -0.1813034 ],
         [ 0.08312798, -0.05878035, -0.21560729, ..., -0.07622869,
          -0.06410043,  0.03495101],
         [-0.06990202,  0.01602511, -0.04942819, ...,  0.11756071,
          -0.11756071, -0.0174755 ],
         ...,
         [ 0.23512141, -0.10780364, -0.13980404, ...,  0.01347546,
          -0.09885637, -0.01347546],
         [-0.06990202,  0.11756071, -0.05390182, ...,  0.00141643,
           0.04942819, -0.0906517 ],
         [ 0.010391  ,  0.00873775,  0.10780364, ...,  0.03811434,
           0.12820086, -0.04942819]]],


       [[[-0.02471409,  0.06990202,  0.11756071, ..., -0.09885637,
          -0.02266292,  0.13980404],
         [ 0.010391  , -0.00308926,  0.0906517 , ..., -0.16625595,
           0.12820086, -0.09885637],
         [-0.03811434, -0.02939018,  0.0906517 , ..., -0.25640172,
          -0.00673773, -0.10780364],
         ...,
         [ 0.05390182, -0.13980404,  0.12820086, ..., -0.1813034 ,
           0.15245737,  0.0906517 ],
         [-0.02266292,  0.21560729, -0.05878035, ...,  0.3325119 ,
          -0.11756071, -0.04532585],
         [ 0.06410043, -0.12820086, -0.06410043, ...,  0.11756071,
          -0.01469509, -0.01133146]],

        [[-0.07622869, -0.07622869,  0.08312798, ...,  0.        ,
          -0.01602511,  0.10780364],
         [ 0.00617852,  0.01347546, -0.04532585, ..., -0.16625595,
          -0.05390182, -0.25640172],
         [ 0.13980404,  0.03205021, -0.04156399, ...,  0.04156399,
           0.03205021,  0.00873775],
         ...,
         [-0.03811434, -0.06410043,  0.11756071, ...,  0.08312798,
           0.02695091, -0.00734754],
         [ 0.27960807,  0.11756071,  0.04532585, ..., -0.03811434,
          -0.04942819, -0.05878035],
         [ 0.12820086, -0.06990202, -0.0906517 , ..., -0.05878035,
          -0.09885637, -0.21560729]],

        [[ 0.25640172,  0.09885637, -0.12820086, ...,  0.00070822,
          -0.19771275,  0.02695091],
         [ 0.05878035, -0.12820086,  0.09885637, ..., -0.05390182,
          -0.06990202,  0.13980404],
         [-0.04156399,  0.15245737,  0.02266292, ..., -0.06410043,
           0.02939018,  0.07622869],
         ...,
         [ 0.09885637,  0.05390182,  0.02471409, ...,  0.19771275,
           0.11756071,  0.02939018],
         [-0.02266292,  0.15245737,  0.04156399, ...,  0.06410043,
           0.10780364,  0.03811434],
         [ 0.04156399, -0.19771275,  0.00952859, ..., -0.21560729,
           0.16625595, -0.02939018]],

        [[-0.15245737, -0.03495101, -0.02471409, ..., -0.12820086,
          -0.0174755 ,  0.03811434],
         [ 0.06410043,  0.04156399,  0.23512141, ...,  0.07622869,
           0.09885637, -0.05390182],
         [-0.19771275, -0.08312798, -0.0906517 , ..., -0.15245737,
          -0.02695091, -0.12820086],
         ...,
         [ 0.06410043,  0.00566573, -0.1813034 , ..., -0.05390182,
           0.00801255,  0.07622869],
         [-0.11756071,  0.15245737,  0.00100157, ...,  0.0906517 ,
           0.0906517 , -0.11756071],
         [ 0.15245737,  0.15245737, -0.01133146, ...,  0.01602511,
           0.11756071, -0.16625595]],

        [[-0.04156399, -0.02471409, -0.06990202, ..., -0.04532585,
          -0.12820086, -0.0906517 ],
         [-0.09885637, -0.05390182,  0.11756071, ...,  0.05390182,
           0.00673773,  0.07622869],
         [-0.04532585, -0.16625595, -0.10780364, ...,  0.3626068 ,
          -0.12820086, -0.04942819],
         ...,
         [ 0.03495101,  0.1813034 , -0.0906517 , ...,  0.09885637,
          -0.21560729, -0.10780364],
         [-0.02471409, -0.04942819, -0.05878035, ..., -0.13980404,
          -0.11756071,  0.04532585],
         [ 0.03205021,  0.13980404,  0.00734754, ...,  0.15245737,
           0.06990202, -0.11756071]]],


       [[[ 0.06410043, -0.00476429,  0.13980404, ..., -0.1813034 ,
           0.15245737, -0.01347546],
         [ 0.0906517 , -0.08312798, -0.06990202, ...,  0.09885637,
          -0.05878035,  0.16625595],
         [ 0.13980404, -0.09885637, -0.27960807, ...,  0.04532585,
          -0.13980404, -0.04532585],
         ...,
         [ 0.07622869,  0.04156399,  0.04156399, ..., -0.19771275,
           0.1813034 ,  0.15245737],
         [ 0.12820086, -0.08312798,  0.05390182, ..., -0.04942819,
           0.02078199,  0.12820086],
         [ 0.0906517 ,  0.0906517 , -0.07622869, ...,  0.12820086,
          -0.11756071,  0.16625595]],

        [[ 0.30491474,  0.21560729,  0.02695091, ..., -0.03495101,
          -0.04942819, -0.11756071],
         [-0.0174755 ,  0.04156399, -0.02939018, ...,  0.0906517 ,
          -0.05390182,  0.08312798],
         [-0.0906517 ,  0.1813034 , -0.07622869, ...,  0.12820086,
           0.02266292,  0.15245737],
         ...,
         [ 0.04532585,  0.05390182, -0.05878035, ..., -0.05878035,
           0.09885637,  0.00734754],
         [-0.08312798, -0.21560729, -0.16625595, ..., -0.00400628,
           0.0906517 , -0.11756071],
         [-0.09885637, -0.02939018, -0.1813034 , ...,  0.23512141,
           0.01602511,  0.03495101]],

        [[-0.03495101,  0.1813034 ,  0.06990202, ..., -0.04156399,
          -0.08312798, -0.12820086],
         [-0.04156399, -0.00952859, -0.0906517 , ...,  0.04942819,
          -0.05878035,  0.05878035],
         [-0.16625595,  0.1813034 ,  0.00336886, ..., -0.15245737,
           0.06410043,  0.00367377],
         ...,
         [-0.15245737,  0.15245737, -0.02695091, ..., -0.15245737,
           0.10780364,  0.12820086],
         [-0.06990202, -0.13980404,  0.15245737, ..., -0.05878035,
           0.11756071, -0.19771275],
         [-0.06410043,  0.06990202,  0.04156399, ..., -0.23512141,
           0.02471409,  0.0174755 ]],

        [[-0.10780364, -0.04942819,  0.15245737, ...,  0.11756071,
           0.03205021,  0.03495101],
         [-0.09885637, -0.12820086,  0.10780364, ...,  0.00801255,
           0.09885637,  0.15245737],
         [-0.05390182, -0.03205021,  0.05878035, ...,  0.12820086,
           0.08312798, -0.01347546],
         ...,
         [ 0.02939018,  0.05390182, -0.04532585, ...,  0.23512141,
           0.25640172,  0.03811434],
         [ 0.1813034 ,  0.00673773,  0.05878035, ..., -0.11756071,
          -0.02939018, -0.06990202],
         [-0.01905717, -0.00400628, -0.04942819, ..., -0.08312798,
           0.05390182, -0.11756071]],

        [[ 0.05878035,  0.03495101,  0.0906517 , ..., -0.06410043,
          -0.03811434,  0.10780364],
         [ 0.00873775,  0.13980404,  0.04942819, ..., -0.13980404,
           0.01469509, -0.01469509],
         [-0.06990202, -0.23512141,  0.10780364, ..., -0.00283287,
          -0.08312798, -0.00154463],
         ...,
         [-0.23512141,  0.04532585, -0.16625595, ..., -0.04532585,
          -0.1813034 , -0.05390182],
         [ 0.1813034 , -0.05878035,  0.09885637, ..., -0.03811434,
          -0.08312798,  0.04532585],
         [-0.1813034 , -0.43121457, -0.15245737, ...,  0.1813034 ,
           0.16625595, -0.06410043]]]], dtype=float32), array([ 4.74585031e-05,  1.03507729e-04, -3.65955093e-05, -3.07730297e-05,
       -8.38955657e-06,  4.35196380e-05,  2.37292516e-05, -5.64379880e-05,
       -1.41094970e-05,  4.35196380e-05, -6.71164526e-05,  1.46382037e-04,
        9.49170062e-05, -2.46184238e-04, -1.18646258e-05, -2.46184238e-04,
       -1.03507729e-04, -7.31910186e-05, -3.65955093e-05,  1.34232905e-04,
        8.38955657e-06,  2.46184238e-04, -5.17538647e-05,  2.25751952e-04,
       -2.37292516e-05, -1.03507729e-04,  2.58769323e-05, -6.46923309e-06,
       -5.17538647e-05,  1.12875976e-04, -2.17598190e-05, -2.92764074e-04,
        4.74585031e-05, -1.46382037e-04, -7.31910186e-05, -9.14887733e-06,
       -1.89834012e-04,  1.23092119e-04,  9.49170062e-05, -1.29384662e-05,
        1.99538408e-05, -4.51503904e-04, -1.89834012e-04,  1.41094970e-05,
        2.25751952e-04, -1.59630727e-04,  1.18646258e-05, -3.19261453e-04],
      dtype=float32)])
 list([array([0.90440863, 1.0755292 , 0.90440863, 1.0755292 , 0.82934636,
       1.0755292 , 0.82934636, 1.0755292 , 0.82934636, 0.98626465,
       0.82934636, 0.82934636, 0.82934636, 0.98626465, 0.90440863,
       0.98626465, 1.0755292 , 1.0755292 , 0.98626465, 0.98626465,
       0.98626465, 1.0755292 , 1.0755292 , 0.98626465, 0.98626465,
       0.98626465, 0.90440863, 1.0755292 , 1.1728729 , 1.0755292 ,
       0.98626465, 1.0755292 , 1.0755292 , 0.82934636, 0.98626465,
       0.90440863, 1.0755292 , 1.0755292 , 1.1728729 , 0.90440863,
       1.1728729 , 1.0755292 , 1.1728729 , 1.1728729 , 0.90440863,
       1.0755292 , 0.98626465, 1.1728729 ], dtype=float32), array([-0.16621344,  0.03204202, -0.27953658, -0.10777608, -0.1976622 ,
        0.03204202, -0.23506129, -0.00873552, -0.3953244 , -0.15241839,
       -0.21555217, -0.30483678, -0.16621344,  0.05388804, -0.23506129,
       -0.10777608, -0.03494207,  0.04941555, -0.23506129, -0.06988414,
       -0.13976829, -0.11753064,  0.01747104, -0.01747104, -0.27953658,
        0.05388804, -0.27953658, -0.06988414,  0.13976829, -0.25633618,
       -0.18125704,  0.02265713, -0.18125704, -0.27953658, -0.33242688,
       -0.0988311 , -0.00141607, -0.11753064,  0.04531426, -0.27953658,
       -0.0381046 , -0.04941555, -0.02694402, -0.05388804, -0.3953244 ,
       -0.15241839, -0.09062852,  0.11753064], dtype=float32)])
 list([])
 list([array([[[[-0.1056215 , -0.35526696, -0.09685534, ..., -0.00466785,
          -0.05759053,  0.27394828],
         [ 0.19371068, -0.12560584,  0.01018066, ..., -0.06280292,
           0.1056215 ,  0.13697414],
         [ 0.13697414,  0.03734284, -0.07468568, ..., -0.05281075,
          -0.03424354, -0.04072266],
         ...,
         [ 0.03140146, -0.23036212, -0.06848707, ...,  0.14937136,
          -0.19371068, -0.01110209],
         [ 0.211243  ,  0.13697414, -0.06848707, ..., -0.211243  ,
          -0.02879526,  0.14937136],
         [-0.1056215 , -0.06848707,  0.11518106, ...,  0.06280292,
          -0.1056215 ,  0.12560584]],

        [[-0.08144531, -0.25121167, -0.16289063, ...,  0.1056215 ,
           0.12560584,  0.09685534],
         [ 0.08144531,  0.03140146, -0.05759053, ...,  0.19371068,
          -0.01320269,  0.14937136],
         [ 0.07468568, -0.17763348,  0.16289063, ...,  0.09685534,
          -0.211243  , -0.11518106],
         ...,
         [-0.23036212, -0.00233393,  0.06280292, ..., -0.13697414,
          -0.19371068, -0.01439763],
         [-0.05281075, -0.09685534, -0.211243  , ...,  0.06848707,
          -0.12560584, -0.09685534],
         [ 0.06848707,  0.00933571,  0.13697414, ..., -0.23036212,
           0.23036212,  0.07468568]],

        [[ 0.16289063, -0.09685534,  0.03424354, ...,  0.2987427 ,
          -0.03140146, -0.08144531],
         [-0.16289063, -0.23036212,  0.06280292, ...,  0.16289063,
           0.19371068,  0.2987427 ],
         [ 0.06280292,  0.17763348, -0.1056215 , ...,  0.13697414,
          -0.09685534,  0.07468568],
         ...,
         [ 0.211243  ,  0.00785036, -0.13697414, ..., -0.09685534,
           0.03140146,  0.02220418],
         [ 0.05759053,  0.08144531,  0.03734284, ...,  0.02879526,
          -0.06280292,  0.00165034],
         [ 0.08881674,  0.05759053,  0.17763348, ..., -0.02640538,
           0.06280292, -0.09685534]]],


       [[[-0.32578126, -0.211243  , -0.14937136, ..., -0.03424354,
           0.01110209, -0.0009813 ],
         [-0.00254517, -0.05759053,  0.08881674, ..., -0.06848707,
           0.03140146,  0.02640538],
         [ 0.07468568,  0.08881674, -0.01712177, ..., -0.04842767,
          -0.07468568, -0.04072266],
         ...,
         [-0.11518106,  0.25121167, -0.03140146, ..., -0.04440837,
          -0.01439763,  0.05281075],
         [-0.17763348,  0.06280292, -0.00719882, ...,  0.12560584,
          -0.00302673,  0.03140146],
         [ 0.13697414,  0.13697414, -0.14937136, ..., -0.08881674,
          -0.06848707, -0.08881674]],

        [[-0.05281075, -0.04842767, -0.06280292, ...,  0.11518106,
          -0.04842767, -0.02640538],
         [ 0.05759053,  0.07468568, -0.00933571, ..., -0.27394828,
          -0.08144531, -0.08144531],
         [-0.02220418, -0.06848707, -0.32578126, ...,  0.01570073,
           0.04440837, -0.13697414],
         ...,
         [-0.06280292, -0.03424354, -0.12560584, ...,  0.08881674,
          -0.09685534, -0.03424354],
         [ 0.17763348, -0.08881674,  0.08881674, ..., -0.06280292,
           0.08881674,  0.211243  ],
         [-0.19371068,  0.05281075, -0.17763348, ...,  0.03734284,
          -0.17763348,  0.09685534]],

        [[ 0.13697414,  0.16289063, -0.12560584, ...,  0.06280292,
           0.02421384,  0.01712177],
         [-0.08144531,  0.14937136,  0.01867142, ..., -0.03424354,
           0.25121167,  0.14937136],
         [-0.08881674, -0.04440837,  0.1056215 , ..., -0.03734284,
           0.05281075,  0.25121167],
         ...,
         [ 0.14937136,  0.01320269,  0.11518106, ...,  0.01018066,
           0.16289063,  0.1056215 ],
         [-0.02879526,  0.01439763,  0.12560584, ...,  0.06848707,
          -0.02036133, -0.11518106],
         [-0.06280292,  0.06280292, -0.19371068, ..., -0.1056215 ,
           0.04440837,  0.08144531]]],


       [[[ 0.25121167,  0.01320269, -0.14937136, ...,  0.06848707,
           0.14937136, -0.27394828],
         [ 0.01712177,  0.02640538,  0.14937136, ...,  0.05759053,
          -0.23036212,  0.13697414],
         [-0.03734284, -0.06280292, -0.17763348, ..., -0.25121167,
          -0.11518106, -0.19371068],
         ...,
         [ 0.12560584,  0.1056215 , -0.17763348, ...,  0.211243  ,
           0.00856088,  0.01210692],
         [ 0.06848707, -0.07468568, -0.11518106, ..., -0.03424354,
          -0.04072266,  0.08144531],
         [-0.09685534,  0.06280292,  0.02220418, ..., -0.09685534,
          -0.14937136,  0.02640538]],

        [[-0.13697414, -0.03734284, -0.12560584, ..., -0.16289063,
           0.02220418, -0.16289063],
         [ 0.25121167,  0.00555105,  0.09685534, ..., -0.1056215 ,
          -0.35526696, -0.12560584],
         [-0.00392518, -0.14937136, -0.01018066, ...,  0.14937136,
           0.09685534, -0.14937136],
         ...,
         [-0.1056215 ,  0.00359941, -0.06280292, ..., -0.06848707,
          -0.16289063, -0.23036212],
         [-0.06848707,  0.23036212,  0.13697414, ...,  0.09685534,
          -0.08144531, -0.06280292],
         [ 0.11518106, -0.12560584,  0.08881674, ...,  0.19371068,
          -0.05281075, -0.02640538]],

        [[ 0.16289063, -0.1056215 ,  0.01867142, ..., -0.09685534,
           0.11518106, -0.05759053],
         [-0.03140146,  0.06280292, -0.09685534, ..., -0.19371068,
           0.11518106, -0.32578126],
         [ 0.02879526,  0.211243  , -0.06848707, ..., -0.23036212,
          -0.00605346, -0.14937136],
         ...,
         [ 0.211243  ,  0.02640538, -0.25121167, ..., -0.19371068,
          -0.01320269, -0.06280292],
         [-0.19371068, -0.32578126, -0.12560584, ..., -0.01110209,
           0.01867142, -0.04072266],
         [-0.08881674, -0.16289063, -0.19371068, ...,  0.02640538,
           0.13697414,  0.06280292]]]], dtype=float32), array([ 7.2838884e-05,  6.6793553e-05, -3.3396776e-05,  1.0827565e-05,
       -2.1655131e-05,  9.9289209e-06,  5.1504870e-05, -2.6717421e-04,
        6.4381088e-06, -3.6419442e-05,  6.6793553e-05, -7.2838884e-05,
        1.2249991e-04, -3.0624979e-05, -3.6419442e-05, -1.4567777e-04,
       -2.7068913e-06,  2.1655131e-05,  5.1504870e-05,  6.6793553e-05,
        1.0300974e-04,  1.5312489e-05,  1.0827565e-05, -1.3358711e-04,
       -2.5752435e-05, -8.6620523e-05, -7.2838884e-05, -2.1655131e-05,
       -7.9431367e-05, -7.9431367e-05, -1.2249991e-04, -2.9518858e-06,
        7.9431367e-05,  1.1807543e-05, -9.4460345e-05, -1.4041615e-05,
       -5.1504870e-05, -1.5886273e-04, -3.0624979e-05,  3.6419442e-05,
       -7.2838884e-05,  9.4460345e-05,  2.6717421e-04, -8.6620523e-05,
        1.0300974e-04,  1.4041615e-05,  6.6793553e-05,  4.7230173e-05,
        1.2249991e-04, -1.4567777e-04, -8.3491941e-06,  8.3491941e-06,
        5.9037716e-06,  1.3358711e-04, -6.6793553e-05,  1.0300974e-04,
        1.6698388e-05,  4.3310261e-05,  1.1807543e-05, -6.1249957e-05,
        3.6419442e-05, -5.6166460e-05,  1.2249991e-04, -1.0300974e-04],
      dtype=float32)])
 list([array([0.8780523, 1.138693 , 1.138693 , 0.9575228, 1.044186 , 1.044186 ,
       1.2417535, 1.138693 , 1.044186 , 0.9575228, 0.8780523, 1.044186 ,
       1.044186 , 0.8780523, 0.8051775, 1.2417535, 0.738351 , 0.8780523,
       1.138693 , 1.044186 , 1.044186 , 1.138693 , 1.044186 , 1.044186 ,
       1.138693 , 1.138693 , 1.044186 , 1.138693 , 0.9575228, 0.8051775,
       1.044186 , 1.044186 , 1.138693 , 1.138693 , 0.8051775, 0.8051775,
       0.8051775, 1.044186 , 0.9575228, 1.044186 , 0.8780523, 1.138693 ,
       1.2417535, 1.044186 , 1.044186 , 1.138693 , 0.9575228, 1.044186 ,
       1.138693 , 1.044186 , 0.9575228, 1.044186 , 0.8780523, 1.2417535,
       1.044186 , 0.9575228, 1.044186 , 0.9575228, 1.044186 , 1.138693 ,
       0.738351 , 1.044186 , 0.8780523, 1.138693 ], dtype=float32), array([-0.13282691, -0.1448488 , -0.05121178, -0.12180282, -0.26565382,
       -0.06641345, -0.04696141,  0.0861276 , -0.01396171, -0.1448488 ,
       -0.40969422, -0.1722552 , -0.05584684, -0.18784563, -0.3445104 ,
       -0.11169368, -0.40969422, -0.15795872, -0.15795872, -0.1448488 ,
       -0.05121178,  0.09392282, -0.05121178, -0.13282691, -0.0234807 ,
       -0.13282691, -0.1722552 ,  0.11169368, -0.2896976 , -0.3445104 ,
        0.06641345, -0.15795872,  0.05584684, -0.10242356, -0.44677472,
       -0.26565382, -0.24360564, -0.0362122 , -0.24360564, -0.15795872,
       -0.40969422, -0.0724244 ,  0.09392282, -0.02792342, -0.20484711,
       -0.02560589, -0.1722552 , -0.1722552 , -0.01174035, -0.12180282,
       -0.1448488 , -0.01174035, -0.26565382,  0.07897936, -0.12180282,
       -0.1722552 , -0.15795872, -0.2896976 , -0.18784563, -0.0430638 ,
       -0.3445104 , -0.15795872, -0.2896976 , -0.06641345], dtype=float32)])
 list([])
 list([array([[[[ 0.00563316,  0.04132503,  0.09828804, ..., -0.21436772,
           0.01126632, -0.07579044],
         [ 0.27800053, -0.0637319 , -0.15158087, ...,  0.08265005,
           0.07579044,  0.02922121],
         [ 0.006143  ,  0.0637319 ,  0.09828804, ...,  0.27800053,
          -0.30316174,  0.00868752],
         ...,
         [-0.05844241,  0.02066251, -0.02922121, ..., -0.09013052,
          -0.23376966, -0.1653001 ],
         [-0.19657607,  0.1274638 ,  0.07579044, ...,  0.10718386,
          -0.04914402,  0.09828804],
         [ 0.05844241, -0.08265005,  0.1653001 , ..., -0.1653001 ,
          -0.06950013, -0.06950013]],

        [[-0.09828804, -0.23376966,  0.09828804, ..., -0.1274638 ,
          -0.09828804, -0.11688483],
         [-0.02253263, -0.06950013, -0.11688483, ..., -0.13900027,
          -0.02457201, -0.0637319 ],
         [ 0.19657607, -0.00070414, -0.18026105, ...,  0.1274638 ,
           0.        ,  0.1653001 ],
         ...,
         [-0.11688483,  0.0637319 , -0.05359193, ...,  0.09013052,
           0.04914402, -0.04914402],
         [ 0.1653001 , -0.05844241,  0.08265005, ..., -0.00118423,
           0.02457201,  0.05844241],
         [-0.1274638 , -0.3605221 , -0.04132503, ...,  0.19657607,
          -0.01737503, -0.15158087]],

        [[-0.1653001 ,  0.15158087,  0.19657607, ...,  0.08265005,
           0.1274638 , -0.09828804],
         [-0.03789522, -0.11688483, -0.13900027, ..., -0.0637319 ,
           0.13900027, -0.15158087],
         [-0.09013052, -0.21436772, -0.01033126, ...,  0.08265005,
           0.09013052,  0.05359193],
         ...,
         [-0.01737503,  0.11688483, -0.30316174, ..., -0.0637319 ,
           0.21436772, -0.13900027],
         [-0.18026105, -0.02679596,  0.04506526, ..., -0.09828804,
           0.0637319 , -0.18026105],
         [-0.06950013,  0.19657607, -0.18026105, ...,  0.21436772,
           0.07579044, -0.15158087]]],


       [[[ 0.07579044, -0.19657607, -0.10718386, ..., -0.11688483,
           0.09013052,  0.18026105],
         [ 0.09013052, -0.04506526,  0.18026105, ...,  0.0094738 ,
           0.04132503,  0.04914402],
         [ 0.06950013, -0.09828804,  0.1274638 , ..., -0.19657607,
          -0.11688483,  0.        ],
         ...,
         [ 0.19657607, -0.05359193,  0.1653001 , ...,  0.08265005,
          -0.11688483,  0.06950013],
         [-0.0033495 , -0.19657607,  0.11688483, ..., -0.06950013,
           0.0094738 ,  0.02679596],
         [ 0.13900027, -0.006143  , -0.01593298, ..., -0.05359193,
          -0.07579044,  0.01737503]],

        [[-0.03475007,  0.06950013,  0.0637319 , ...,  0.02922121,
           0.1274638 ,  0.06950013],
         [-0.07579044,  0.07579044, -0.1653001 , ..., -0.13900027,
          -0.1274638 , -0.04506526],
         [ 0.012286  ,  0.01339798, -0.08265005, ..., -0.10718386,
           0.04132503,  0.11688483],
         ...,
         [ 0.06950013,  0.012286  ,  0.006143  , ..., -0.09828804,
          -0.0637319 , -0.04132503],
         [ 0.03186595, -0.1274638 ,  0.04506526, ...,  0.15158087,
          -0.01737503,  0.1274638 ],
         [-0.11688483, -0.11688483, -0.06950013, ...,  0.10718386,
          -0.09013052,  0.19657607]],

        [[-0.05844241, -0.01033126, -0.08265005, ...,  0.04506526,
          -0.19657607, -0.09828804],
         [-0.23376966, -0.15158087,  0.08265005, ..., -0.09828804,
           0.09828804, -0.05844241],
         [ 0.0637319 ,  0.05359193,  0.23376966, ..., -0.09828804,
           0.19657607,  0.21436772],
         ...,
         [-0.07579044,  0.04132503, -0.0637319 , ...,  0.05844241,
           0.00516563, -0.15158087],
         [ 0.09013052,  0.21436772, -0.1653001 , ..., -0.3306002 ,
          -0.00434376,  0.06950013],
         [-0.13900027, -0.09013052, -0.11688483, ...,  0.04914402,
           0.18026105, -0.00258281]]],


       [[[-0.02066251,  0.10718386, -0.21436772, ..., -0.09828804,
          -0.1274638 , -0.01033126],
         [ 0.00182633, -0.27800053,  0.13900027, ..., -0.2549276 ,
           0.15158087,  0.23376966],
         [-0.01894761,  0.11688483,  0.1653001 , ...,  0.1274638 ,
          -0.0094738 , -0.06950013],
         ...,
         [-0.1653001 ,  0.09013052,  0.1274638 , ...,  0.13900027,
          -0.10718386,  0.19657607],
         [-0.10718386, -0.03475007, -0.21436772, ...,  0.23376966,
           0.00070414, -0.03186595],
         [ 0.1653001 ,  0.04914402,  0.05844241, ...,  0.15158087,
          -0.0637319 , -0.01339798]],

        [[ 0.19657607, -0.03186595,  0.1653001 , ...,  0.05844241,
          -0.04132503,  0.15158087],
         [ 0.11688483,  0.21436772,  0.1274638 , ...,  0.1274638 ,
          -0.3605221 ,  0.10718386],
         [ 0.0094738 ,  0.19657607, -0.1653001 , ..., -0.00140829,
          -0.05844241, -0.15158087],
         ...,
         [-0.012286  , -0.00281658,  0.012286  , ...,  0.13900027,
           0.13900027, -0.012286  ],
         [-0.3306002 , -0.04914402,  0.06950013, ...,  0.18026105,
          -0.0637319 , -0.05359193],
         [-0.03475007, -0.0637319 ,  0.15158087, ...,  0.09013052,
          -0.05359193, -0.10718386]],

        [[ 0.04914402, -0.09828804, -0.09828804, ...,  0.03186595,
           0.1653001 ,  0.10718386],
         [-0.21436772, -0.1274638 ,  0.05359193, ...,  0.3306002 ,
           0.05359193,  0.19657607],
         [ 0.00258281,  0.19657607,  0.09828804, ..., -0.04132503,
           0.07579044, -0.10718386],
         ...,
         [ 0.21436772,  0.21436772,  0.09828804, ..., -0.19657607,
           0.10718386,  0.09828804],
         [-0.04914402,  0.10718386, -0.11688483, ...,  0.01593298,
          -0.10718386, -0.08265005],
         [-0.06950013,  0.05359193,  0.1653001 , ..., -0.30316174,
           0.01894761, -0.01593298]]]], dtype=float32), array([-3.20703184e-05,  7.62765048e-05,  6.74195371e-06, -3.20703184e-05,
        1.17634445e-04,  2.69678148e-05, -9.89183827e-05,  1.74864635e-05,
        9.07085559e-05, -6.41406368e-05, -1.03975144e-05,  3.49729271e-05,
       -4.15900577e-05, -2.26771390e-05, -5.88172225e-05,  8.31801153e-05,
       -3.81382524e-05, -4.53542780e-05, -2.83464237e-06,  4.94591914e-05,
        1.17634445e-04,  1.74864635e-05,  1.23647978e-05,  3.81382524e-05,
        9.89183827e-05,  5.39356297e-05,  2.26771390e-05,  6.18239892e-06,
        5.66928475e-06,  1.23647978e-05, -5.39356297e-05,  2.94086112e-05,
       -3.81382524e-05,  3.49729271e-05,  2.69678148e-05,  1.74864635e-05,
       -1.74864635e-05,  6.41406368e-05,  5.88172225e-05,  5.46451986e-07,
        2.94086112e-05,  4.15900577e-05,  2.69678148e-05,  7.62765048e-05,
        7.62765048e-05,  2.94086112e-05, -9.07085559e-05,  3.37097686e-06,
       -2.07950288e-05, -3.81382524e-05, -5.39356297e-05, -1.47043056e-05,
        3.49729271e-05, -8.31801153e-05, -7.35215281e-06, -1.34839074e-05,
        1.90691262e-05, -1.03975144e-05, -1.60351592e-05, -1.17634445e-04,
        4.15900577e-05, -1.03975144e-05,  9.07085559e-05,  3.81382524e-05],
      dtype=float32)])
 list([array([0.9434364 , 1.1219412 , 1.0288247 , 1.1219412 , 1.0288247 ,
       0.9434364 , 1.2234856 , 1.1219412 , 1.1219412 , 1.1219412 ,
       0.9434364 , 1.1219412 , 1.1219412 , 0.7274889 , 1.2234856 ,
       1.0288247 , 1.2234856 , 1.1219412 , 0.9434364 , 0.66711026,
       1.1219412 , 1.1219412 , 0.9434364 , 1.1219412 , 1.0288247 ,
       1.1219412 , 0.9434364 , 1.0288247 , 1.1219412 , 0.6117428 ,
       1.1219412 , 1.2234856 , 0.9434364 , 1.2234856 , 1.1219412 ,
       0.7933323 , 0.7274889 , 1.1219412 , 1.1219412 , 0.86513495,
       1.0288247 , 1.0288247 , 1.0288247 , 0.86513495, 1.1219412 ,
       0.9434364 , 1.1219412 , 1.2234856 , 1.0288247 , 1.1219412 ,
       1.1219412 , 1.1219412 , 1.0288247 , 1.0288247 , 0.9434364 ,
       1.1219412 , 0.7933323 , 1.0288247 , 0.7933323 , 0.9434364 ,
       1.0288247 , 0.86513495, 1.0288247 , 1.1219412 ], dtype=float32), array([-0.21862373, -0.1838399 , -0.20047882, -0.21862373, -0.07729515,
       -0.25998887, -0.04214548, -0.07087997, -0.15459031, -0.03864758,
       -0.04214548, -0.04595998, -0.03543999, -0.1838399 , -0.25998887,
       -0.05960271, -0.21862373, -0.14175995, -0.2835199 , -0.16858193,
       -0.14175995, -0.14175995, -0.2835199 , -0.14175995,  0.02107274,
       -0.1838399 , -0.33716387, -0.30918062, -0.20047882, -0.30918062,
       -0.05011971,  0.02107274, -0.23841085, -0.16858193, -0.11920542,
       -0.21862373, -0.14175995, -0.08429097, -0.1838399 , -0.30918062,
       -0.2835199 , -0.25998887, -0.25998887, -0.25998887, -0.03864758,
       -0.21862373, -0.03543999, -0.16858193, -0.25998887, -0.21862373,
       -0.21862373, -0.15459031, -0.14175995, -0.00966189, -0.14175995,
       -0.1838399 , -0.33716387, -0.20047882, -0.23841085, -0.20047882,
       -0.1838399 , -0.21862373, -0.30918062, -0.02107274], dtype=float32)])
 list([]) list([])
 list([array([[-0.11818627,  0.16714062, -0.05418864, ...,  0.04556704,
         0.00677358,  0.08357031],
       [ 0.02709432,  0.00119741,  0.00957929, ...,  0.00957929,
        -0.10837728,  0.00738664],
       [-0.01044629,  0.0993824 ,  0.02278352, ..., -0.07663431,
         0.07027397,  0.02954657],
       ...,
       [-0.25776607, -0.07027397, -0.0248456 , ...,  0.04178515,
        -0.01756849, -0.00439212],
       [-0.07663431, -0.33428124,  0.03513699, ...,  0.03831716,
        -0.00738664, -0.15326862],
       [-0.08357031,  0.08357031,  0.12888303, ..., -0.12888303,
        -0.21675456, -0.08357031]], dtype=float32), array([-4.1664584e-06, -5.8922628e-06, -1.1784526e-05,  4.9547825e-06,
        2.5702231e-05,  2.9461314e-06,  1.6063894e-06, -3.8206595e-06,
        1.1784526e-05,  1.1784526e-05, -1.1939561e-07,  2.1897252e-07,
       -1.0416146e-06,  9.0871117e-06,  2.0832292e-06,  9.0871117e-06,
       -4.1664584e-06,  8.3329169e-06,  4.5435559e-06, -1.9819130e-05,
        4.9547825e-06, -1.5282638e-05,  2.0832292e-06,  7.6413189e-06,
        8.3329169e-06,  4.1664584e-06, -4.1664584e-06, -3.0967391e-07,
       -9.9095651e-06,  1.4014241e-05, -4.9547825e-06, -4.1664584e-06,
       -6.4255578e-06,  9.0871117e-06, -4.5435559e-06, -5.8922628e-06,
       -2.8028482e-05, -8.0319472e-07,  3.0967391e-07,  1.2851116e-05,
       -4.5435559e-06,  1.3508071e-06,  2.8397224e-07, -7.0071205e-06,
        2.6040365e-07, -1.0806457e-05,  8.0319472e-07, -7.6413189e-06,
       -2.7016142e-06,  1.1358890e-06, -5.8922628e-06,  3.5035603e-06,
       -8.3329169e-06, -3.2127789e-06, -1.0806457e-05, -1.8174223e-05,
       -1.9819130e-05, -1.1784526e-05,  8.0319472e-07, -7.0071205e-06,
       -1.4014241e-05, -5.8922628e-06,  5.8922628e-06, -1.0416146e-06,
       -1.1784526e-05, -1.4198612e-07,  9.0871117e-06,  3.5035603e-06,
        4.5435559e-06, -2.6040365e-07, -5.4032284e-06,  7.6413189e-06,
        5.4032284e-06,  8.3329169e-06,  1.9103297e-06, -6.4255578e-06,
       -4.5435559e-06,  1.7517801e-06, -3.5035603e-06, -4.9547825e-06,
        1.4014241e-05, -2.7016142e-06, -4.9547825e-06, -9.0871117e-06,
        1.9819130e-05, -9.9095651e-06,  5.8922628e-06, -5.4032284e-06,
       -2.4773913e-06, -9.9095651e-06,  1.0806457e-05, -7.0071205e-06,
       -5.8922628e-06, -4.9547825e-06,  5.4743129e-08,  4.0159736e-07,
       -3.2127789e-06,  1.3508071e-06, -1.0806457e-05, -1.2851116e-05],
      dtype=float32)])
 list([array([0.90110207, 0.9826588 , 0.9826588 , 1.071597  , 0.9826588 ,
       1.071597  , 0.9826588 , 0.90110207, 0.9826588 , 0.9826588 ,
       1.071597  , 1.1685848 , 0.90110207, 1.071597  , 1.071597  ,
       0.9826588 , 0.9826588 , 0.9826588 , 0.9826588 , 1.071597  ,
       0.9826588 , 0.9826588 , 0.9826588 , 1.071597  , 0.90110207,
       1.071597  , 0.9826588 , 0.9826588 , 0.9826588 , 0.8263142 ,
       1.071597  , 0.9826588 , 0.9826588 , 0.9826588 , 0.9826588 ,
       0.90110207, 1.071597  , 0.90110207, 0.90110207, 0.9826588 ,
       0.9826588 , 0.9826588 , 0.90110207, 0.9826588 , 0.9826588 ,
       0.9826588 , 0.9826588 , 0.9826588 , 0.9826588 , 1.071597  ,
       1.071597  , 0.9826588 , 1.071597  , 1.071597  , 1.071597  ,
       1.071597  , 0.9826588 , 0.90110207, 0.90110207, 0.90110207,
       0.9826588 , 0.90110207, 0.9826588 , 0.9826588 , 0.9826588 ,
       0.9826588 , 0.9826588 , 0.9826588 , 0.9826588 , 1.071597  ,
       0.9826588 , 0.9826588 , 0.90110207, 0.9826588 , 1.071597  ,
       0.9826588 , 0.90110207, 0.90110207, 0.90110207, 0.9826588 ,
       0.9826588 , 0.9826588 , 0.9826588 , 0.9826588 , 0.90110207,
       1.071597  , 0.9826588 , 1.1685848 , 0.9826588 , 0.9826588 ,
       0.9826588 , 0.90110207, 0.90110207, 0.9826588 , 0.9826588 ,
       0.9826588 , 0.9826588 , 0.90110207, 0.9826588 , 0.9826588 ],
      dtype=float32), array([-0.04408957, -0.27198163, -0.10486326, -0.3234425 , -0.3234425 ,
       -0.24940826, -0.24940826, -0.3234425 , -0.27198163, -0.22870837,
       -0.22870837, -0.24940826, -0.59319615, -0.22870837, -0.12470413,
       -0.20972651, -0.27198163, -0.35271654, -0.41945302, -0.646885  ,
       -0.3234425 , -0.27198163, -0.41945302, -0.16172124, -0.22870837,
       -0.13599081, -0.41945302, -0.20972651, -0.27198163, -0.41945302,
       -0.3234425 , -0.35271654, -0.27198163, -0.20972651, -0.22870837,
       -0.24940826, -0.22870837, -0.19232005, -0.41945302, -0.27198163,
       -0.27198163, -0.20972651, -0.35271654, -0.41945302, -0.20972651,
       -0.11435419, -0.12470413, -0.13599081, -0.11435419, -0.3846401 ,
       -0.3234425 , -0.3846401 , -0.35271654, -0.29659808, -0.27198163,
       -0.20972651, -0.3846401 , -0.27198163, -0.45741674, -0.22870837,
       -0.22870837, -0.3846401 , -0.17635827, -0.35271654, -0.3846401 ,
       -0.3234425 , -0.41945302, -0.3846401 , -0.19232005, -0.20972651,
       -0.41945302, -0.29659808, -0.54396325, -0.20972651, -0.3234425 ,
       -0.20972651, -0.29659808, -0.02404001, -0.20972651, -0.45741674,
       -0.14829904, -0.35271654, -0.27198163, -0.22870837, -0.24940826,
       -0.3846401 , -0.41945302, -0.29659808, -0.35271654, -0.3846401 ,
       -0.3234425 , -0.16172124, -0.3234425 , -0.29659808, -0.24940826,
       -0.29659808, -0.29659808, -0.3234425 , -0.45741674, -0.35271654],
      dtype=float32)])
 list([])
 list([array([[-0.23749669,  0.19971012, -0.19971012, ..., -0.3079951 ,
         0.09985506, -0.01049597],
       [ 0.21778543,  0.00110325, -0.18313499, ...,  0.28243276,
        -0.21778543, -0.28243276],
       [-0.02968709, -0.05444636, -0.05444636, ..., -0.01049597,
        -0.02722318, -0.05937417],
       ...,
       [ 0.07699878, -0.33587104,  0.064748  , ..., -0.08396776,
         0.032374  ,  0.258992  ],
       [ 0.09985506, -0.09985506, -0.28243276, ...,  0.258992  ,
         0.10889272, -0.04992753],
       [ 0.3079951 , -0.14121638, -0.36626998, ..., -0.258992  ,
         0.01361159, -0.129496  ]], dtype=float32), array([ 2.55584437e-05, -5.11168873e-05, -2.68650047e-06,  2.55584437e-05,
       -1.27792218e-05, -3.79928520e-06,  2.55584437e-05, -1.27792218e-05,
        1.74198010e-06, -3.31452029e-05, -2.46353170e-06,  3.48396020e-06,
       -2.34371964e-05,  1.02233775e-04,  1.39358408e-05, -3.61450984e-05,
       -3.31452029e-05, -3.61450984e-05,  2.46353170e-06,  1.27792218e-05,
        5.85929911e-06,  7.59857039e-06, -9.85412680e-06,  1.07460019e-05,
       -8.28630073e-06,  8.28630073e-06, -2.34371964e-05,  9.03627461e-06,
        3.94165072e-05,  1.53970731e-07,  1.97082536e-05, -1.80725492e-05,
        1.65726015e-05,  5.85929911e-06,  1.23176585e-06, -2.92964955e-06,
        2.14920037e-05, -2.34371964e-05,  3.19480546e-06,  1.27792218e-05,
       -5.57433632e-05,  1.27792218e-05,  4.68743929e-05, -1.27792218e-05,
        5.11168873e-05,  9.85412680e-06,  8.28630073e-06,  9.03627461e-06,
       -9.49821299e-07, -2.14920037e-05], dtype=float32)])
 list([array([0.90702814, 0.9891212 , 0.90702814, 0.9891212 , 0.9891212 ,
       1.17627   , 1.17627   , 0.9891212 , 1.17627   , 1.0786444 ,
       0.90702814, 0.7627167 , 1.0786444 , 1.17627   , 0.90702814,
       0.9891212 , 1.0786444 , 0.83174855, 1.0786444 , 1.0786444 ,
       1.0786444 , 1.17627   , 0.9891212 , 0.90702814, 1.2827315 ,
       0.6994143 , 0.90702814, 0.90702814, 0.90702814, 1.17627   ,
       0.9891212 , 0.9891212 , 1.0786444 , 0.9891212 , 1.0786444 ,
       1.0786444 , 1.17627   , 1.0786444 , 0.83174855, 0.90702814,
       1.17627   , 0.9891212 , 0.90702814, 0.90702814, 1.0786444 ,
       0.6994143 , 0.83174855, 0.90702814, 0.90702814, 0.83174855],
      dtype=float32), array([-0.08972771, -0.00471573, -0.2537883 , -0.2767581 , -0.39139506,
       -0.02446219,  0.05818122, -0.19569753,  0.05818122, -0.3291227 ,
       -0.13837905, -0.42681932, -0.2537883 , -0.04892438, -0.3291227 ,
       -0.12689415, -0.01586177, -0.17945543, -0.15090342, -0.08228067,
       -0.2767581 , -0.02057017, -0.15090342, -0.16456135,  0.01729738,
       -0.42681932, -0.23272489, -0.30180684, -0.01886293, -0.30180684,
       -0.23272489, -0.08972771, -0.17945543, -0.3291227 , -0.09784877,
       -0.19569753, -0.03459476, -0.13837905, -0.3291227 , -0.11636245,
       -0.17945543, -0.16456135, -0.35891086, -0.2537883 , -0.09784877,
       -0.39139506, -0.19569753, -0.23272489, -0.39139506, -0.30180684],
      dtype=float32)])
 list([])
 list([array([[ 0.01009384, -0.04402964,  0.11419874, -0.45679498, -0.4981385 ,
        -0.16150142,  0.2961949 ,  0.12453462,  0.12453462,  0.00424394],
       [ 0.24906924, -0.16150142,  0.38411728,  0.19205864,  0.09602932,
        -0.14809746,  0.02618018,  0.3522371 , -0.20944144, -0.41888288],
       [-0.06226731, -0.24906924,  0.19205864,  0.32300285, -0.19205864,
         0.04801466, -0.14809746,  0.12453462,  0.03702436,  0.38411728],
       [ 0.24906924,  0.2961949 , -0.4981385 , -0.17611855,  0.06790298,
        -0.16150142,  0.22839749, -0.24906924, -0.20944144,  0.06790298],
       [-0.32300285, -0.24906924, -0.32300285, -0.3522371 , -0.20944144,
        -0.19205864, -0.09602932, -0.08805928,  0.04402964,  0.38411728],
       [-0.04801466,  0.45679498, -0.01427484, -0.54322386, -0.2961949 ,
        -0.2961949 , -0.08075071,  0.45679498, -0.12453462,  0.01556683],
       [-0.12453462,  0.4981385 , -0.2961949 , -0.05236036, -0.19205864,
        -0.32300285,  0.14809746,  0.4981385 ,  0.10472072,  0.17611855],
       [-0.38411728,  0.20944144, -0.00389171,  0.07404873, -0.07404873,
        -0.05236036, -0.3522371 ,  0.45679498,  0.16150142,  0.13580596],
       [-0.27161193,  0.3522371 ,  0.2961949 , -0.24906924, -0.01851218,
        -0.14809746, -0.2961949 ,  0.20944144, -0.41888288,  0.2961949 ],
       [-0.20944144,  0.3522371 , -0.08075071, -0.08805928,  0.2961949 ,
        -0.14809746, -0.41888288,  0.06226731,  0.11419874,  0.24906924],
       [ 0.12453462,  0.12453462,  0.24906924,  0.32300285, -0.41888288,
         0.10472072, -0.06226731, -0.22839749, -0.20944144, -0.2961949 ],
       [ 0.27161193, -0.08075071,  0.2961949 , -0.5923898 , -0.12453462,
         0.03395149, -0.03113366, -0.12453462, -0.27161193, -0.27161193],
       [ 0.08805928, -0.41888288, -0.04037536,  0.22839749,  0.17611855,
        -0.20944144, -0.38411728, -0.27161193,  0.32300285,  0.06226731],
       [-0.16150142,  0.24906924,  0.02400733, -0.32300285, -0.41888288,
         0.4981385 , -0.20944144,  0.09602932, -0.2961949 , -0.27161193],
       [ 0.01556683,  0.20944144, -0.4981385 , -0.27161193, -0.01200366,
         0.22839749,  0.24906924, -0.41888288, -0.10472072, -0.20944144],
       [-0.32300285, -0.45679498,  0.13580596,  0.3522371 , -0.14809746,
         0.12453462,  0.06790298, -0.16150142,  0.20944144,  0.32300285],
       [ 0.2961949 ,  0.45679498,  0.24906924,  0.19205864, -0.32300285,
         0.13580596, -0.14809746,  0.4981385 ,  0.24906924, -0.05709937],
       [-0.32300285,  0.06790298, -0.08805928,  0.24906924,  0.00115701,
        -0.07404873,  0.06226731, -0.14809746,  0.17611855, -0.32300285],
       [-0.03113366,  0.03702436, -0.16150142, -0.16150142,  0.32300285,
         0.22839749, -0.22839749, -0.05709937,  0.45679498, -0.24906924],
       [ 0.41888288, -0.19205864,  0.38411728, -0.19205864,  0.07404873,
         0.38411728, -0.16150142,  0.41888288,  0.01309009,  0.16150142],
       [-0.2961949 , -0.19205864,  0.20944144, -0.22839749,  0.27161193,
        -0.76823455, -0.12453462, -0.20944144,  0.41888288,  0.27161193],
       [ 0.17611855, -0.4981385 , -0.32300285, -0.08805928, -0.24906924,
         0.24906924, -0.06790298, -0.41888288,  0.01556683,  0.32300285],
       [ 0.41888288, -0.06790298, -0.16150142, -0.19205864, -0.07404873,
        -0.08805928, -0.22839749, -0.19205864, -0.19205864,  0.38411728],
       [ 0.10472072, -0.14809746, -0.32300285,  0.22839749, -0.27161193,
        -0.2961949 , -0.32300285,  0.27161193, -0.41888288,  0.2961949 ],
       [-0.38411728,  0.45679498,  0.3522371 , -0.01556683,  0.08805928,
         0.20944144, -0.4981385 ,  0.24906924, -0.16150142, -0.45679498],
       [-0.02618018, -0.11419874,  0.19205864,  0.04402964, -0.03395149,
        -0.16150142, -0.06226731, -0.24906924,  0.05709937, -0.27161193],
       [-0.08075071,  0.00925609,  0.32300285,  0.05709937,  0.20944144,
         0.07404873,  0.2961949 ,  0.06226731,  0.3522371 , -0.2961949 ],
       [-0.16150142,  0.13580596, -0.02400733, -0.4981385 ,  0.10472072,
         0.20944144, -0.27161193, -0.2961949 , -0.00848787, -0.24906924],
       [ 0.06226731, -0.04037536,  0.16150142, -0.20944144, -0.45679498,
         0.06226731,  0.12453462, -0.24906924,  0.38411728,  0.24906924],
       [ 0.01697575,  0.3522371 , -0.16150142,  0.24906924,  0.13580596,
         0.08075071, -0.24906924,  0.4981385 , -0.07404873, -0.08075071],
       [-0.02201482,  0.24906924, -0.45679498, -0.06790298, -0.38411728,
        -0.24906924,  0.38411728, -0.20944144, -0.54322386,  0.22839749],
       [-0.11419874,  0.45679498,  0.32300285, -0.07404873,  0.32300285,
        -0.24906924,  0.16150142,  0.16150142,  0.22839749,  0.02201482],
       [ 0.05709937,  0.41888288,  0.22839749, -0.38411728,  0.06790298,
        -0.19205864,  0.20944144,  0.19205864, -0.20944144,  0.17611855],
       [ 0.32300285,  0.2961949 , -0.45679498,  0.14809746, -0.19205864,
        -0.00150046,  0.07404873, -0.11419874,  0.22839749, -0.11419874],
       [ 0.3522371 , -0.08075071, -0.45679498, -0.12453462, -0.2961949 ,
        -0.12453462,  0.38411728,  0.06790298,  0.27161193,  0.12453462],
       [-0.11419874, -0.45679498,  0.45679498,  0.22839749, -0.17611855,
         0.00504692, -0.00925609,  0.08075071,  0.09602932, -0.32300285],
       [-0.32300285,  0.54322386, -0.32300285, -0.32300285, -0.20944144,
        -0.45679498, -0.24906924,  0.3522371 ,  0.19205864, -0.05709937],
       [ 0.41888288,  0.19205864, -0.54322386, -0.14809746, -0.45679498,
        -0.14809746,  0.45679498, -0.09602932,  0.22839749, -0.2961949 ],
       [-0.22839749,  0.08075071,  0.00231402,  0.24906924,  0.11419874,
        -0.19205864,  0.2961949 ,  0.27161193,  0.02854969, -0.08075071],
       [-0.2961949 ,  0.17611855,  0.13580596,  0.3522371 ,  0.24906924,
        -0.2961949 ,  0.27161193, -0.22839749, -0.13580596, -0.09602932],
       [ 0.4981385 ,  0.09602932, -0.41888288, -0.12453462, -0.54322386,
         0.20944144,  0.45679498,  0.08075071,  0.10472072,  0.00600183],
       [ 0.14809746, -0.07404873, -0.13580596,  0.19205864, -0.3522371 ,
        -0.41888288, -0.00356871,  0.41888288, -0.02400733,  0.38411728],
       [-0.03113366,  0.02854969, -0.08805928, -0.19205864,  0.08075071,
         0.32300285,  0.3522371 , -0.11419874, -0.54322386, -0.45679498],
       [ 0.2961949 ,  0.02618018, -0.24906924,  0.00300092,  0.02854969,
        -0.27161193,  0.20944144, -0.13580596,  0.12453462, -0.2961949 ],
       [ 0.27161193, -0.3522371 ,  0.41888288,  0.13580596,  0.19205864,
        -0.32300285, -0.32300285,  0.11419874,  0.        , -0.12453462],
       [ 0.14809746,  0.03395149, -0.3522371 , -0.13580596,  0.04402964,
         0.19205864,  0.11419874, -0.20944144,  0.45679498, -0.32300285],
       [-0.22839749,  0.01427484, -0.3522371 , -0.27161193, -0.13580596,
         0.00462805,  0.19205864, -0.2961949 , -0.4981385 ,  0.17611855],
       [-0.3522371 , -0.22839749, -0.00231402, -0.16150142,  0.11419874,
        -0.00462805, -0.3522371 ,  0.08805928, -0.08075071,  0.3522371 ],
       [ 0.3522371 , -0.09602932,  0.19205864, -0.27161193,  0.24906924,
        -0.11419874, -0.00600183,  0.09602932, -0.45679498, -0.7044742 ],
       [ 0.12453462, -0.02854969, -0.3522371 , -0.38411728, -0.41888288,
         0.04037536,  0.12453462, -0.20944144,  0.05236036, -0.27161193]],
      dtype=float32), array([ 1.6669594e-04, -9.0891612e-05,  8.3347972e-05,  9.0891612e-05,
        9.0891612e-05, -6.1948749e-06, -6.4270069e-05,  5.4044474e-05,
       -3.8215214e-05, -5.8935915e-05], dtype=float32)])
 list([array([0.85107607, 0.7804402 , 0.7804402 , 0.71566683, 0.85107607,
       0.85107607, 0.7804402 , 0.7804402 , 0.60180163, 0.7804402 ],
      dtype=float32), array([-0.03617768,  0.02558148, -0.15780815, -0.00639537, -0.01808884,
        0.00986301,  0.01972602, -0.07235536, -0.344182  , -0.01521084],
      dtype=float32)])
 list([])
 list([array([[ 0.13092019],
       [ 0.28553894],
       [-0.06546009],
       [-0.07138474],
       [-0.16978246],
       [ 0.1851491 ],
       [-0.28553894],
       [-0.16978246],
       [-0.0389228 ],
       [-0.10095326]], dtype=float32), array([0.01988566], dtype=float32)])]
